digraph Tree {
node [shape=box] ;
0 [label="X[0] <= 0.324\ngini = 0.494\nsamples = 1097\nvalue = [608, 489]"] ;
1 [label="X[1] <= 7.509\ngini = 0.305\nsamples = 528\nvalue = [99, 429]"] ;
0 -> 1 [labeldistance=2.5, labelangle=45, headlabel="True"] ;
2 [label="X[0] <= -0.403\ngini = 0.133\nsamples = 445\nvalue = [32, 413]"] ;
1 -> 2 ;
3 [label="X[2] <= 6.219\ngini = 0.067\nsamples = 375\nvalue = [13, 362]"] ;
2 -> 3 ;
4 [label="X[1] <= 7.293\ngini = 0.008\nsamples = 263\nvalue = [1, 262]"] ;
3 -> 4 ;
5 [label="gini = 0.0\nsamples = 260\nvalue = [0, 260]"] ;
4 -> 5 ;
6 [label="X[2] <= 0.248\ngini = 0.444\nsamples = 3\nvalue = [1, 2]"] ;
4 -> 6 ;
7 [label="gini = 0.0\nsamples = 2\nvalue = [0, 2]"] ;
6 -> 7 ;
8 [label="gini = 0.0\nsamples = 1\nvalue = [1, 0]"] ;
6 -> 8 ;
9 [label="X[1] <= -4.675\ngini = 0.191\nsamples = 112\nvalue = [12, 100]"] ;
3 -> 9 ;
10 [label="gini = 0.0\nsamples = 100\nvalue = [0, 100]"] ;
9 -> 10 ;
11 [label="gini = 0.0\nsamples = 12\nvalue = [12, 0]"] ;
9 -> 11 ;
12 [label="X[1] <= 5.454\ngini = 0.396\nsamples = 70\nvalue = [19, 51]"] ;
2 -> 12 ;
13 [label="X[2] <= 2.625\ngini = 0.255\nsamples = 60\nvalue = [9, 51]"] ;
12 -> 13 ;
14 [label="gini = 0.0\nsamples = 50\nvalue = [0, 50]"] ;
13 -> 14 ;
15 [label="X[3] <= 1.135\ngini = 0.18\nsamples = 10\nvalue = [9, 1]"] ;
13 -> 15 ;
16 [label="gini = 0.0\nsamples = 9\nvalue = [9, 0]"] ;
15 -> 16 ;
17 [label="gini = 0.0\nsamples = 1\nvalue = [0, 1]"] ;
15 -> 17 ;
18 [label="gini = 0.0\nsamples = 10\nvalue = [10, 0]"] ;
12 -> 18 ;
19 [label="X[0] <= -3.954\ngini = 0.311\nsamples = 83\nvalue = [67, 16]"] ;
1 -> 19 ;
20 [label="gini = 0.0\nsamples = 16\nvalue = [0, 16]"] ;
19 -> 20 ;
21 [label="gini = 0.0\nsamples = 67\nvalue = [67, 0]"] ;
19 -> 21 ;
22 [label="X[2] <= -4.386\ngini = 0.189\nsamples = 569\nvalue = [509, 60]"] ;
0 -> 22 [labeldistance=2.5, labelangle=-45, headlabel="False"] ;
23 [label="X[1] <= 7.192\ngini = 0.305\nsamples = 32\nvalue = [6, 26]"] ;
22 -> 23 ;
24 [label="gini = 0.0\nsamples = 26\nvalue = [0, 26]"] ;
23 -> 24 ;
25 [label="gini = 0.0\nsamples = 6\nvalue = [6, 0]"] ;
23 -> 25 ;
26 [label="X[0] <= 1.592\ngini = 0.119\nsamples = 537\nvalue = [503, 34]"] ;
22 -> 26 ;
27 [label="X[2] <= -2.19\ngini = 0.351\nsamples = 141\nvalue = [109, 32]"] ;
26 -> 27 ;
28 [label="X[1] <= 5.667\ngini = 0.298\nsamples = 22\nvalue = [4, 18]"] ;
27 -> 28 ;
29 [label="gini = 0.0\nsamples = 18\nvalue = [0, 18]"] ;
28 -> 29 ;
30 [label="gini = 0.0\nsamples = 4\nvalue = [4, 0]"] ;
28 -> 30 ;
31 [label="X[3] <= 0.106\ngini = 0.208\nsamples = 119\nvalue = [105, 14]"] ;
27 -> 31 ;
32 [label="gini = 0.0\nsamples = 92\nvalue = [92, 0]"] ;
31 -> 32 ;
33 [label="X[2] <= 1.853\ngini = 0.499\nsamples = 27\nvalue = [13, 14]"] ;
31 -> 33 ;
34 [label="X[1] <= 3.507\ngini = 0.219\nsamples = 16\nvalue = [2, 14]"] ;
33 -> 34 ;
35 [label="gini = 0.0\nsamples = 14\nvalue = [0, 14]"] ;
34 -> 35 ;
36 [label="gini = 0.0\nsamples = 2\nvalue = [2, 0]"] ;
34 -> 36 ;
37 [label="gini = 0.0\nsamples = 11\nvalue = [11, 0]"] ;
33 -> 37 ;
38 [label="X[0] <= 2.03\ngini = 0.01\nsamples = 396\nvalue = [394, 2]"] ;
26 -> 38 ;
39 [label="X[2] <= -2.116\ngini = 0.093\nsamples = 41\nvalue = [39, 2]"] ;
38 -> 39 ;
40 [label="X[1] <= 6.473\ngini = 0.444\nsamples = 3\nvalue = [1, 2]"] ;
39 -> 40 ;
41 [label="gini = 0.0\nsamples = 2\nvalue = [0, 2]"] ;
40 -> 41 ;
42 [label="gini = 0.0\nsamples = 1\nvalue = [1, 0]"] ;
40 -> 42 ;
43 [label="gini = 0.0\nsamples = 38\nvalue = [38, 0]"] ;
39 -> 43 ;
44 [label="gini = 0.0\nsamples = 355\nvalue = [355, 0]"] ;
38 -> 44 ;
}
