digraph Tree {
node [shape=box] ;
0 [label="X[3] <= 0.667\nmse = 13692.341\nsamples = 38\nvalue = 583.974"] ;
1 [label="X[1] <= 4389.5\nmse = 6666.408\nsamples = 34\nvalue = 556.941"] ;
0 -> 1 [labeldistance=2.5, labelangle=45, headlabel="True"] ;
2 [label="X[0] <= 8.75\nmse = 2855.42\nsamples = 21\nvalue = 600.762"] ;
1 -> 2 ;
3 [label="X[2] <= 5350.0\nmse = 2527.34\nsamples = 16\nvalue = 617.312"] ;
2 -> 3 ;
4 [label="X[1] <= 3731.5\nmse = 1754.0\nsamples = 7\nvalue = 646.0"] ;
3 -> 4 ;
5 [label="X[0] <= 7.25\nmse = 1251.188\nsamples = 4\nvalue = 672.25"] ;
4 -> 5 ;
6 [label="X[3] <= 0.552\nmse = 56.25\nsamples = 2\nvalue = 706.5"] ;
5 -> 6 ;
7 [label="mse = 0.0\nsamples = 1\nvalue = 714.0"] ;
6 -> 7 ;
8 [label="mse = 0.0\nsamples = 1\nvalue = 699.0"] ;
6 -> 8 ;
9 [label="X[3] <= 0.605\nmse = 100.0\nsamples = 2\nvalue = 638.0"] ;
5 -> 9 ;
10 [label="mse = 0.0\nsamples = 1\nvalue = 628.0"] ;
9 -> 10 ;
11 [label="mse = 0.0\nsamples = 1\nvalue = 648.0"] ;
9 -> 11 ;
12 [label="X[1] <= 4298.0\nmse = 280.667\nsamples = 3\nvalue = 611.0"] ;
4 -> 12 ;
13 [label="X[1] <= 4020.5\nmse = 90.25\nsamples = 2\nvalue = 600.5"] ;
12 -> 13 ;
14 [label="mse = 0.0\nsamples = 1\nvalue = 591.0"] ;
13 -> 14 ;
15 [label="mse = 0.0\nsamples = 1\nvalue = 610.0"] ;
13 -> 15 ;
16 [label="mse = 0.0\nsamples = 1\nvalue = 632.0"] ;
12 -> 16 ;
17 [label="X[3] <= 0.565\nmse = 1990.889\nsamples = 9\nvalue = 595.0"] ;
3 -> 17 ;
18 [label="X[1] <= 4197.5\nmse = 763.556\nsamples = 3\nvalue = 545.333"] ;
17 -> 18 ;
19 [label="X[3] <= 0.538\nmse = 100.0\nsamples = 2\nvalue = 564.0"] ;
18 -> 19 ;
20 [label="mse = 0.0\nsamples = 1\nvalue = 554.0"] ;
19 -> 20 ;
21 [label="mse = 0.0\nsamples = 1\nvalue = 574.0"] ;
19 -> 21 ;
22 [label="mse = 0.0\nsamples = 1\nvalue = 508.0"] ;
18 -> 22 ;
23 [label="X[1] <= 4325.0\nmse = 754.472\nsamples = 6\nvalue = 619.833"] ;
17 -> 23 ;
24 [label="X[1] <= 4125.5\nmse = 209.84\nsamples = 5\nvalue = 630.6"] ;
23 -> 24 ;
25 [label="X[0] <= 7.04\nmse = 29.556\nsamples = 3\nvalue = 638.333"] ;
24 -> 25 ;
26 [label="X[3] <= 0.597\nmse = 4.0\nsamples = 2\nvalue = 642.0"] ;
25 -> 26 ;
27 [label="mse = 0.0\nsamples = 1\nvalue = 640.0"] ;
26 -> 27 ;
28 [label="mse = 0.0\nsamples = 1\nvalue = 644.0"] ;
26 -> 28 ;
29 [label="mse = 0.0\nsamples = 1\nvalue = 631.0"] ;
25 -> 29 ;
30 [label="X[3] <= 0.579\nmse = 256.0\nsamples = 2\nvalue = 619.0"] ;
24 -> 30 ;
31 [label="mse = 0.0\nsamples = 1\nvalue = 603.0"] ;
30 -> 31 ;
32 [label="mse = 0.0\nsamples = 1\nvalue = 635.0"] ;
30 -> 32 ;
33 [label="mse = 0.0\nsamples = 1\nvalue = 566.0"] ;
23 -> 33 ;
34 [label="X[2] <= 1418.0\nmse = 223.76\nsamples = 5\nvalue = 547.8"] ;
2 -> 34 ;
35 [label="mse = 0.0\nsamples = 1\nvalue = 524.0"] ;
34 -> 35 ;
36 [label="X[3] <= 0.535\nmse = 102.688\nsamples = 4\nvalue = 553.75"] ;
34 -> 36 ;
37 [label="X[3] <= 0.521\nmse = 9.0\nsamples = 2\nvalue = 544.0"] ;
36 -> 37 ;
38 [label="mse = 0.0\nsamples = 1\nvalue = 547.0"] ;
37 -> 38 ;
39 [label="mse = 0.0\nsamples = 1\nvalue = 541.0"] ;
37 -> 39 ;
40 [label="X[1] <= 3793.0\nmse = 6.25\nsamples = 2\nvalue = 563.5"] ;
36 -> 40 ;
41 [label="mse = 0.0\nsamples = 1\nvalue = 566.0"] ;
40 -> 41 ;
42 [label="mse = 0.0\nsamples = 1\nvalue = 561.0"] ;
40 -> 42 ;
43 [label="X[3] <= 0.572\nmse = 4709.822\nsamples = 13\nvalue = 486.154"] ;
1 -> 43 ;
44 [label="X[3] <= 0.481\nmse = 2144.914\nsamples = 9\nvalue = 453.556"] ;
43 -> 44 ;
45 [label="mse = 0.0\nsamples = 1\nvalue = 344.0"] ;
44 -> 45 ;
46 [label="X[2] <= 3280.5\nmse = 725.188\nsamples = 8\nvalue = 467.25"] ;
44 -> 46 ;
47 [label="X[0] <= 8.0\nmse = 408.688\nsamples = 4\nvalue = 448.75"] ;
46 -> 47 ;
48 [label="mse = 0.0\nsamples = 1\nvalue = 414.0"] ;
47 -> 48 ;
49 [label="X[3] <= 0.531\nmse = 8.222\nsamples = 3\nvalue = 460.333"] ;
47 -> 49 ;
50 [label="mse = 0.0\nsamples = 1\nvalue = 464.0"] ;
49 -> 50 ;
51 [label="X[1] <= 4958.0\nmse = 2.25\nsamples = 2\nvalue = 458.5"] ;
49 -> 51 ;
52 [label="mse = 0.0\nsamples = 1\nvalue = 460.0"] ;
51 -> 52 ;
53 [label="mse = 0.0\nsamples = 1\nvalue = 457.0"] ;
51 -> 53 ;
54 [label="X[3] <= 0.54\nmse = 357.188\nsamples = 4\nvalue = 485.75"] ;
46 -> 54 ;
55 [label="X[1] <= 4786.5\nmse = 12.25\nsamples = 2\nvalue = 467.5"] ;
54 -> 55 ;
56 [label="mse = 0.0\nsamples = 1\nvalue = 464.0"] ;
55 -> 56 ;
57 [label="mse = 0.0\nsamples = 1\nvalue = 471.0"] ;
55 -> 57 ;
58 [label="X[2] <= 6224.5\nmse = 36.0\nsamples = 2\nvalue = 504.0"] ;
54 -> 58 ;
59 [label="mse = 0.0\nsamples = 1\nvalue = 510.0"] ;
58 -> 59 ;
60 [label="mse = 0.0\nsamples = 1\nvalue = 498.0"] ;
58 -> 60 ;
61 [label="X[1] <= 4705.0\nmse = 2710.25\nsamples = 4\nvalue = 559.5"] ;
43 -> 61 ;
62 [label="mse = 0.0\nsamples = 1\nvalue = 649.0"] ;
61 -> 62 ;
63 [label="X[0] <= 7.5\nmse = 53.556\nsamples = 3\nvalue = 529.667"] ;
61 -> 63 ;
64 [label="X[1] <= 4909.5\nmse = 0.25\nsamples = 2\nvalue = 524.5"] ;
63 -> 64 ;
65 [label="mse = 0.0\nsamples = 1\nvalue = 525.0"] ;
64 -> 65 ;
66 [label="mse = 0.0\nsamples = 1\nvalue = 524.0"] ;
64 -> 66 ;
67 [label="mse = 0.0\nsamples = 1\nvalue = 540.0"] ;
63 -> 67 ;
68 [label="X[0] <= 7.75\nmse = 14404.188\nsamples = 4\nvalue = 813.75"] ;
0 -> 68 [labeldistance=2.5, labelangle=-45, headlabel="False"] ;
69 [label="X[1] <= 4530.5\nmse = 5788.222\nsamples = 3\nvalue = 871.667"] ;
68 -> 69 ;
70 [label="mse = 0.0\nsamples = 1\nvalue = 968.0"] ;
69 -> 70 ;
71 [label="X[1] <= 4965.5\nmse = 1722.25\nsamples = 2\nvalue = 823.5"] ;
69 -> 71 ;
72 [label="mse = 0.0\nsamples = 1\nvalue = 865.0"] ;
71 -> 72 ;
73 [label="mse = 0.0\nsamples = 1\nvalue = 782.0"] ;
71 -> 73 ;
74 [label="mse = 0.0\nsamples = 1\nvalue = 640.0"] ;
68 -> 74 ;
}
